digraph Tree {
node [shape=box] ;
0 [label="X[0] <= 179.0\ngini = 0.444\nsamples = 3\nvalue = [2, 1]"] ;
1 [label="gini = 0.0\nsamples = 2\nvalue = [2, 0]"] ;
0 -> 1 [labeldistance=2.5, labelangle=45, headlabel="True"] ;
2 [label="gini = 0.0\nsamples = 1\nvalue = [0, 1]"] ;
0 -> 2 [labeldistance=2.5, labelangle=-45, headlabel="False"] ;
}